63 100
</s> 0.004003 0.004419 -0.003830 -0.003278 0.001367 0.003021 0.000941 0.000211 -0.003604 0.002218 -0.004356 0.001250 -0.000751 -0.000957 -0.003316 -0.001882 0.002579 0.003025 0.002969 0.001597 0.001545 -0.003803 -0.004096 0.004970 0.003801 0.003090 -0.000604 0.004016 -0.000495 0.000735 -0.000149 -0.002983 0.001312 -0.001337 -0.003825 0.004754 0.004379 -0.001095 -0.000226 0.000509 -0.003638 -0.004007 0.004555 0.000063 -0.002582 -0.003042 -0.003076 0.001697 0.000201 0.001331 -0.004214 -0.003808 -0.000130 0.001144 0.002550 -0.003170 0.004080 0.000927 0.001120 -0.000608 0.002986 -0.002288 -0.002097 0.002158 -0.000753 0.001031 0.001805 -0.004089 -0.001983 0.002914 0.004232 0.003932 -0.003047 -0.002108 -0.000909 0.002001 -0.003788 0.002998 0.002788 -0.001599 -0.001552 -0.002238 0.004229 0.003912 -0.001180 0.004215 0.004820 0.001815 0.004983 -0.003111 -0.001532 -0.002107 -0.002907 0.002815 0.001579 0.000425 -0.002194 0.001524 0.003059 0.000194 
the -0.087722 -0.124793 0.057794 -0.151253 0.183532 -0.256303 0.148582 -0.041676 -0.189665 0.452671 0.261172 0.241832 -0.045963 0.115064 -0.067036 0.421384 0.371036 0.164727 0.448271 0.431872 0.069469 0.028367 0.311042 -0.559746 0.210544 -0.243603 -0.141282 -0.078069 -0.073340 0.239339 0.038404 0.104063 -0.316201 0.170502 -0.067911 0.150768 -0.126530 -0.145401 0.147969 -0.195275 0.049830 -0.049249 -0.005268 0.146291 0.226211 0.266804 -0.109247 -0.166529 0.069031 0.018751 -0.036495 -0.247472 -0.049495 -0.186877 -0.094014 -0.210385 0.173599 -0.059830 0.244129 -0.410965 -0.070608 -0.120247 0.089759 -0.027552 -0.003310 0.044022 0.272991 0.028600 0.400940 -0.129194 0.116284 -0.079747 0.094728 -0.188022 -0.307439 0.069281 -0.026512 0.317830 -0.208991 -0.107412 0.093385 0.023019 -0.121287 -0.076284 0.318490 0.193590 -0.145273 0.011676 0.288896 -0.199692 -0.001124 -0.035834 0.048575 0.048545 0.098176 0.012757 -0.302856 0.323862 -0.127173 -0.118445 
of -0.085513 -0.113549 0.052117 -0.135224 0.161378 -0.226070 0.135840 -0.038255 -0.169401 0.412509 0.235189 0.212350 -0.038865 0.098308 -0.058161 0.373543 0.337062 0.153685 0.400950 0.389175 0.063925 0.029213 0.279915 -0.494873 0.185730 -0.207575 -0.124635 -0.071983 -0.071584 0.218920 0.038552 0.092712 -0.279646 0.155919 -0.065482 0.133262 -0.113972 -0.131203 0.130185 -0.172600 0.049947 -0.040041 -0.006466 0.129933 0.204561 0.238278 -0.095248 -0.142826 0.058763 0.011263 -0.031853 -0.223151 -0.045870 -0.167499 -0.078737 -0.191415 0.160041 -0.053979 0.222876 -0.364099 -0.056604 -0.109265 0.078354 -0.023609 -0.000716 0.034002 0.243872 0.019504 0.358123 -0.116367 0.101412 -0.061522 0.088118 -0.167917 -0.272500 0.059440 -0.026009 0.292444 -0.194019 -0.096356 0.088224 0.023725 -0.104082 -0.058320 0.291505 0.173528 -0.130060 0.002051 0.257516 -0.180208 -0.002561 -0.031883 0.046915 0.038657 0.091850 0.005911 -0.268685 0.284332 -0.114555 -0.100578 
trump -0.102918 -0.123770 0.059365 -0.162680 0.210706 -0.282078 0.167461 -0.047300 -0.203903 0.507645 0.282203 0.276889 -0.048397 0.120054 -0.073565 0.468740 0.416384 0.179374 0.500850 0.471517 0.075716 0.033208 0.342181 -0.620679 0.230757 -0.270676 -0.151425 -0.085244 -0.068725 0.258298 0.036179 0.115975 -0.347414 0.199486 -0.071918 0.172517 -0.142629 -0.155907 0.177613 -0.212061 0.062528 -0.056383 -0.010568 0.165613 0.263735 0.284219 -0.118199 -0.189398 0.084680 0.010771 -0.032000 -0.278368 -0.056633 -0.213998 -0.110526 -0.243722 0.192544 -0.058766 0.274865 -0.457557 -0.075870 -0.126584 0.097967 -0.024855 -0.003229 0.049345 0.302237 0.029932 0.444632 -0.144436 0.138661 -0.078597 0.105333 -0.211876 -0.347547 0.077247 -0.023027 0.349373 -0.234664 -0.117140 0.106121 0.025754 -0.132670 -0.087164 0.350232 0.214065 -0.169272 0.011524 0.314109 -0.218744 0.003440 -0.047561 0.053009 0.056496 0.111536 0.014280 -0.336510 0.361799 -0.137581 -0.137320 
melania -0.093164 -0.117915 0.052231 -0.149228 0.193137 -0.258638 0.149868 -0.036016 -0.188342 0.467138 0.263698 0.255515 -0.040594 0.116339 -0.067826 0.431889 0.377935 0.171473 0.462110 0.444345 0.074065 0.031316 0.319957 -0.570553 0.217918 -0.251086 -0.140314 -0.083326 -0.063030 0.239085 0.033512 0.104840 -0.318608 0.184810 -0.070452 0.148487 -0.128831 -0.141907 0.160362 -0.190802 0.051130 -0.056321 -0.005196 0.146814 0.242309 0.260795 -0.105964 -0.176263 0.079275 0.016499 -0.036697 -0.250750 -0.051241 -0.191786 -0.101357 -0.223238 0.182378 -0.056337 0.258587 -0.416301 -0.070206 -0.116767 0.087655 -0.019751 -0.010587 0.040663 0.283794 0.028774 0.413984 -0.129060 0.124580 -0.081303 0.104323 -0.190375 -0.323104 0.077130 -0.027713 0.323542 -0.208582 -0.099530 0.095501 0.019903 -0.121823 -0.079471 0.321942 0.201389 -0.147560 0.014717 0.292111 -0.199396 0.004738 -0.043284 0.049157 0.048233 0.100950 0.009946 -0.306433 0.333975 -0.131494 -0.125016 
rt -0.057212 -0.075028 0.032597 -0.100554 0.130123 -0.169325 0.098253 -0.023163 -0.126981 0.306065 0.175605 0.168309 -0.032022 0.074035 -0.042624 0.283410 0.256724 0.113597 0.300884 0.292492 0.050208 0.016219 0.212284 -0.380047 0.146751 -0.162315 -0.098236 -0.054102 -0.046662 0.162228 0.027182 0.069763 -0.211208 0.119433 -0.049023 0.101464 -0.081536 -0.093562 0.106509 -0.133392 0.036052 -0.038985 -0.000400 0.102513 0.160909 0.178496 -0.070465 -0.116331 0.047781 0.007650 -0.027342 -0.167777 -0.033367 -0.128290 -0.063036 -0.150799 0.122025 -0.041538 0.165032 -0.271416 -0.050229 -0.078177 0.053094 -0.010034 -0.005708 0.022654 0.189308 0.020298 0.274737 -0.086704 0.085538 -0.050586 0.070089 -0.122289 -0.208998 0.047430 -0.014152 0.220011 -0.144325 -0.069285 0.065231 0.015220 -0.078800 -0.045758 0.214343 0.133329 -0.103458 0.005108 0.194266 -0.129521 0.003866 -0.028466 0.029701 0.026365 0.070923 0.009345 -0.207464 0.218691 -0.088171 -0.084636 
first -0.057259 -0.084755 0.037634 -0.103885 0.122309 -0.171603 0.096298 -0.029138 -0.126047 0.314194 0.172278 0.168632 -0.034877 0.079736 -0.043496 0.281428 0.254971 0.118095 0.298378 0.294411 0.049466 0.017542 0.213141 -0.378051 0.145496 -0.161448 -0.098509 -0.049860 -0.052484 0.161320 0.031683 0.077331 -0.215920 0.119930 -0.041883 0.103118 -0.083031 -0.092893 0.106940 -0.129993 0.036938 -0.028005 -0.010313 0.099019 0.154090 0.181665 -0.076008 -0.111234 0.050845 0.010729 -0.019564 -0.166710 -0.031265 -0.126425 -0.062898 -0.140818 0.123820 -0.034606 0.164777 -0.278403 -0.047534 -0.081407 0.057755 -0.021880 -0.005398 0.030668 0.184677 0.010808 0.266908 -0.084017 0.080075 -0.046171 0.064095 -0.126529 -0.211798 0.049714 -0.020154 0.221490 -0.147112 -0.067589 0.060748 0.013352 -0.074870 -0.045544 0.217598 0.129397 -0.097250 0.004529 0.196761 -0.128988 0.004157 -0.021355 0.032429 0.027726 0.063312 0.007720 -0.201276 0.220866 -0.088127 -0.075382 
kennedy -0.090014 -0.120807 0.057019 -0.161479 0.203112 -0.275187 0.159540 -0.046796 -0.197424 0.494108 0.284272 0.267037 -0.044630 0.127124 -0.069301 0.454323 0.409714 0.178631 0.490288 0.468434 0.085408 0.031347 0.340024 -0.603935 0.227529 -0.261932 -0.148604 -0.090756 -0.066832 0.262690 0.033859 0.117879 -0.340769 0.192349 -0.075537 0.166160 -0.136642 -0.158940 0.171315 -0.203887 0.055973 -0.056552 -0.008903 0.157739 0.259563 0.286970 -0.113607 -0.182014 0.076876 0.011403 -0.041458 -0.270700 -0.059113 -0.211920 -0.104767 -0.239132 0.191748 -0.069649 0.277590 -0.445727 -0.077631 -0.124752 0.093754 -0.025509 -0.009334 0.041750 0.297349 0.028821 0.437538 -0.145746 0.131749 -0.081985 0.102827 -0.209664 -0.347422 0.080248 -0.025065 0.343939 -0.224833 -0.113935 0.099905 0.020476 -0.123608 -0.084375 0.338968 0.214428 -0.159253 0.018264 0.313643 -0.218615 0.004242 -0.047259 0.058533 0.054360 0.109042 0.006256 -0.336058 0.358338 -0.139625 -0.129264 
center -0.084120 -0.117789 0.057493 -0.157834 0.197867 -0.266913 0.154207 -0.044420 -0.185180 0.471705 0.259317 0.254042 -0.041227 0.121817 -0.065404 0.428214 0.384910 0.165637 0.463149 0.446600 0.074187 0.024965 0.316057 -0.574653 0.213099 -0.253474 -0.139445 -0.089155 -0.060400 0.247554 0.031861 0.109791 -0.325058 0.175697 -0.062965 0.155444 -0.126032 -0.150764 0.162998 -0.190411 0.051839 -0.057308 -0.009988 0.146963 0.249043 0.260231 -0.109396 -0.180521 0.082827 0.012373 -0.029396 -0.261768 -0.051888 -0.205009 -0.103791 -0.225881 0.183158 -0.064873 0.264274 -0.420796 -0.068760 -0.111550 0.082137 -0.025025 -0.006107 0.045174 0.285123 0.033047 0.414479 -0.131922 0.130783 -0.083806 0.105958 -0.200232 -0.323366 0.070928 -0.022918 0.332228 -0.215695 -0.100621 0.093762 0.016449 -0.118178 -0.074154 0.315336 0.200389 -0.154229 0.015317 0.292705 -0.207292 0.007253 -0.051767 0.055009 0.049208 0.101446 0.012900 -0.308415 0.344042 -0.124836 -0.123542 
is -0.055958 -0.078568 0.039617 -0.098379 0.121425 -0.164353 0.098434 -0.025712 -0.115570 0.296708 0.165716 0.156631 -0.025011 0.069108 -0.043886 0.270658 0.242086 0.104587 0.285810 0.277691 0.044422 0.020744 0.203835 -0.365595 0.138298 -0.156912 -0.090413 -0.049277 -0.047177 0.151211 0.025683 0.066591 -0.200151 0.115750 -0.043464 0.095166 -0.082413 -0.090960 0.096045 -0.128034 0.035995 -0.033717 -0.007409 0.094198 0.145421 0.172692 -0.070543 -0.103478 0.042556 0.007323 -0.018791 -0.163086 -0.035453 -0.123385 -0.057267 -0.140124 0.118880 -0.034829 0.157348 -0.257990 -0.047865 -0.079843 0.059185 -0.019145 0.000034 0.029936 0.178082 0.014062 0.253962 -0.084872 0.077417 -0.053406 0.058650 -0.119516 -0.199085 0.050837 -0.012427 0.204179 -0.132840 -0.067468 0.063773 0.012581 -0.072598 -0.045691 0.208998 0.124956 -0.097474 0.009765 0.180032 -0.122028 -0.000633 -0.024873 0.034363 0.034395 0.065079 0.006033 -0.198745 0.211336 -0.080179 -0.073075 
each -0.058684 -0.075125 0.029846 -0.094511 0.115387 -0.151159 0.089061 -0.021275 -0.113547 0.274405 0.150685 0.144801 -0.025444 0.065511 -0.041987 0.248107 0.228745 0.106982 0.266733 0.265208 0.041267 0.010776 0.181329 -0.339825 0.124895 -0.144827 -0.091265 -0.043079 -0.045331 0.146996 0.028840 0.065098 -0.195448 0.108805 -0.039804 0.094641 -0.075862 -0.081940 0.096956 -0.113527 0.028941 -0.029601 -0.001356 0.086128 0.136375 0.162542 -0.065846 -0.095105 0.044574 0.013301 -0.013861 -0.153367 -0.027017 -0.110032 -0.058513 -0.127639 0.101181 -0.028683 0.144982 -0.245023 -0.039424 -0.074851 0.055517 -0.016066 -0.007747 0.020873 0.163279 0.017254 0.237772 -0.079654 0.077473 -0.050114 0.062821 -0.115946 -0.191863 0.047011 -0.018526 0.193755 -0.133398 -0.066575 0.059171 0.015011 -0.074819 -0.042300 0.196458 0.114080 -0.095119 0.001517 0.176071 -0.120975 0.002935 -0.019521 0.035538 0.030199 0.055428 0.010146 -0.186044 0.193133 -0.071619 -0.065506 
resigning -0.053884 -0.071113 0.030452 -0.082871 0.106326 -0.138979 0.088421 -0.020470 -0.108977 0.258969 0.141162 0.138099 -0.020151 0.059874 -0.033037 0.233291 0.207602 0.091503 0.248740 0.246546 0.041559 0.012695 0.177048 -0.317215 0.116215 -0.130936 -0.083634 -0.043993 -0.042577 0.133212 0.027217 0.059036 -0.178976 0.098676 -0.036366 0.087998 -0.069823 -0.080674 0.083346 -0.105549 0.035800 -0.022044 -0.008931 0.080189 0.123278 0.147930 -0.062849 -0.090792 0.042180 0.007286 -0.019073 -0.142940 -0.024894 -0.109754 -0.052139 -0.115392 0.103261 -0.026857 0.140681 -0.228558 -0.038047 -0.070222 0.049983 -0.017609 -0.006149 0.025334 0.150673 0.008811 0.223030 -0.072770 0.065461 -0.046496 0.049544 -0.101304 -0.174783 0.040789 -0.015720 0.184413 -0.124235 -0.061876 0.050745 0.012712 -0.061669 -0.039393 0.178840 0.107822 -0.080903 -0.000406 0.158846 -0.107075 0.005041 -0.019085 0.029829 0.030050 0.056171 0.004897 -0.170346 0.183577 -0.068687 -0.063334 
bc -0.073619 -0.095711 0.047835 -0.119914 0.144979 -0.204504 0.118653 -0.036969 -0.149209 0.375886 0.207594 0.201719 -0.030985 0.089494 -0.048183 0.335834 0.303830 0.135267 0.361538 0.347224 0.052255 0.021548 0.252511 -0.454432 0.174252 -0.196230 -0.117111 -0.060308 -0.058570 0.195127 0.031979 0.087913 -0.255757 0.146678 -0.051884 0.128063 -0.106696 -0.119126 0.127499 -0.154930 0.050975 -0.035002 -0.007334 0.114105 0.189257 0.212874 -0.087100 -0.136733 0.060021 0.011246 -0.021607 -0.208549 -0.036955 -0.150919 -0.073492 -0.179274 0.144509 -0.044205 0.203656 -0.334387 -0.052755 -0.099392 0.077526 -0.017423 -0.001613 0.030833 0.223452 0.014754 0.326513 -0.107351 0.101848 -0.056455 0.076682 -0.153771 -0.248964 0.058236 -0.022062 0.267346 -0.172785 -0.081677 0.081758 0.020059 -0.092366 -0.064009 0.261118 0.151395 -0.120103 0.005819 0.237148 -0.159377 0.001162 -0.029981 0.045138 0.043063 0.085080 0.007826 -0.240703 0.266605 -0.100780 -0.094016 
par… -0.042502 -0.058410 0.025468 -0.077939 0.092763 -0.120408 0.068970 -0.022775 -0.095142 0.221790 0.125803 0.119621 -0.024539 0.055299 -0.033464 0.203368 0.180660 0.080129 0.213951 0.216864 0.032513 0.012885 0.155219 -0.280081 0.099109 -0.121074 -0.071639 -0.041536 -0.038632 0.114455 0.020971 0.055366 -0.159820 0.087007 -0.032628 0.077881 -0.064792 -0.072660 0.076908 -0.097752 0.032152 -0.023416 -0.001525 0.071882 0.111315 0.128206 -0.053718 -0.076636 0.029412 0.002790 -0.021013 -0.118903 -0.020477 -0.097230 -0.042632 -0.103436 0.088075 -0.030679 0.122074 -0.201560 -0.031348 -0.061163 0.048292 -0.017756 -0.003024 0.019011 0.131107 0.016097 0.199064 -0.067281 0.063259 -0.036881 0.051363 -0.093269 -0.151666 0.038950 -0.008585 0.163150 -0.109497 -0.046943 0.041290 0.013596 -0.057002 -0.029626 0.156916 0.094421 -0.074402 0.005706 0.145326 -0.100206 -0.003354 -0.015435 0.029974 0.019854 0.051463 0.006302 -0.144025 0.153643 -0.060600 -0.060379 
letter -0.059959 -0.083214 0.039315 -0.103440 0.125387 -0.170256 0.093793 -0.026001 -0.125935 0.300770 0.168185 0.158338 -0.034708 0.071871 -0.042064 0.275907 0.242934 0.117458 0.294152 0.280603 0.046358 0.022879 0.204712 -0.368673 0.137406 -0.154031 -0.096362 -0.052034 -0.047804 0.158521 0.025055 0.074156 -0.210228 0.120560 -0.049010 0.096522 -0.079676 -0.089241 0.095400 -0.127585 0.039009 -0.031100 -0.010184 0.098263 0.146689 0.174952 -0.073878 -0.111787 0.049749 0.005002 -0.026006 -0.162865 -0.035935 -0.125749 -0.065290 -0.138743 0.122089 -0.036564 0.161443 -0.267603 -0.038313 -0.075612 0.062799 -0.014731 -0.008700 0.026125 0.174654 0.014787 0.268563 -0.087777 0.079866 -0.047020 0.061211 -0.125004 -0.205901 0.046839 -0.019543 0.215680 -0.141785 -0.070501 0.064297 0.010359 -0.078977 -0.047132 0.212416 0.128585 -0.098760 0.003151 0.189788 -0.124460 0.004787 -0.027792 0.034783 0.034836 0.068818 0.012467 -0.194463 0.215572 -0.083060 -0.081938 
note: -0.065493 -0.081811 0.039632 -0.106254 0.129397 -0.176133 0.098431 -0.024037 -0.129375 0.314350 0.171613 0.168098 -0.029110 0.078961 -0.049439 0.287524 0.253043 0.120053 0.301490 0.299587 0.045007 0.014896 0.207402 -0.385673 0.141144 -0.160565 -0.099203 -0.053090 -0.047192 0.168784 0.029290 0.077287 -0.215433 0.120703 -0.048127 0.099371 -0.085931 -0.092868 0.104250 -0.133492 0.038478 -0.031243 -0.005818 0.098441 0.154915 0.177147 -0.074425 -0.112509 0.043165 0.013993 -0.019123 -0.163762 -0.028467 -0.131692 -0.059835 -0.147516 0.117253 -0.039420 0.167455 -0.277970 -0.042737 -0.077250 0.057211 -0.021591 -0.002025 0.027168 0.185824 0.015305 0.267570 -0.091426 0.082835 -0.056227 0.070415 -0.130472 -0.211723 0.047962 -0.017214 0.221771 -0.148655 -0.073087 0.068410 0.017430 -0.076104 -0.049973 0.218383 0.124011 -0.105698 0.006499 0.199812 -0.129205 -0.002756 -0.024225 0.037391 0.034288 0.065612 0.010088 -0.209344 0.215963 -0.086710 -0.074398 
actions. -0.064463 -0.080083 0.031953 -0.102571 0.118376 -0.164878 0.100520 -0.022482 -0.121255 0.302595 0.169800 0.158802 -0.024727 0.070901 -0.043536 0.267037 0.243388 0.112106 0.295090 0.281351 0.050851 0.014813 0.201181 -0.369941 0.139442 -0.158079 -0.097679 -0.050951 -0.048764 0.159396 0.029858 0.072134 -0.201876 0.114792 -0.046176 0.099517 -0.081431 -0.090225 0.102677 -0.126021 0.038256 -0.026829 -0.002882 0.091044 0.152410 0.174818 -0.069425 -0.113067 0.042158 0.005153 -0.023449 -0.162641 -0.029163 -0.126433 -0.064315 -0.136374 0.121548 -0.034649 0.161190 -0.264805 -0.039759 -0.082038 0.060325 -0.013695 -0.000563 0.024714 0.171944 0.014302 0.257444 -0.083511 0.076875 -0.049651 0.066650 -0.120498 -0.205531 0.050504 -0.012139 0.216373 -0.141959 -0.070112 0.059629 0.013262 -0.078646 -0.041775 0.213130 0.121380 -0.097254 0.000148 0.183700 -0.124830 -0.002129 -0.028236 0.032752 0.027492 0.061536 0.005186 -0.194269 0.205841 -0.085014 -0.077677 
president's -0.052333 -0.070739 0.032142 -0.088406 0.106470 -0.152438 0.088536 -0.018332 -0.106925 0.277275 0.154144 0.149042 -0.028688 0.065499 -0.035782 0.249867 0.226396 0.106114 0.265564 0.256793 0.042098 0.021641 0.187494 -0.339209 0.119358 -0.146042 -0.087648 -0.051706 -0.039365 0.142676 0.018909 0.066145 -0.188513 0.102634 -0.044187 0.088908 -0.076971 -0.081063 0.086253 -0.115682 0.038429 -0.024554 -0.005220 0.089734 0.134341 0.154591 -0.059679 -0.097092 0.036916 0.008304 -0.015475 -0.150483 -0.025079 -0.109324 -0.054060 -0.131593 0.107890 -0.028346 0.151283 -0.247019 -0.035004 -0.067778 0.053316 -0.016710 -0.008569 0.026443 0.160588 0.011337 0.240204 -0.082755 0.070078 -0.048636 0.054097 -0.111386 -0.181785 0.038480 -0.014246 0.186740 -0.126050 -0.056778 0.053411 0.016774 -0.064718 -0.045535 0.186582 0.112842 -0.091422 0.005835 0.169456 -0.116226 -0.003139 -0.022713 0.025798 0.033534 0.057356 0.005589 -0.176330 0.186376 -0.077166 -0.071476 
@soledadobrien: -0.049423 -0.064449 0.024692 -0.079322 0.092775 -0.123757 0.079107 -0.018832 -0.091640 0.233056 0.134438 0.125073 -0.021511 0.052026 -0.031979 0.212649 0.190970 0.089566 0.225426 0.215676 0.033507 0.018352 0.161362 -0.286400 0.104276 -0.118297 -0.067830 -0.038600 -0.034385 0.116438 0.020842 0.058549 -0.156857 0.095541 -0.033910 0.079214 -0.062112 -0.075591 0.075297 -0.097658 0.033998 -0.020282 -0.002323 0.074650 0.120061 0.128725 -0.052315 -0.085721 0.032543 0.003748 -0.022194 -0.128805 -0.029385 -0.100566 -0.051662 -0.112374 0.091679 -0.026907 0.130764 -0.209634 -0.035420 -0.055393 0.046718 -0.009607 -0.005496 0.022846 0.138291 0.009758 0.200046 -0.067858 0.059589 -0.036446 0.047166 -0.099576 -0.153816 0.040574 -0.013746 0.166989 -0.108206 -0.054096 0.051358 0.009426 -0.061876 -0.035955 0.165911 0.092725 -0.070890 0.005854 0.150077 -0.103623 0.002094 -0.022793 0.024868 0.026827 0.047306 0.009990 -0.149540 0.161622 -0.068449 -0.062674 
honorary -0.054415 -0.075011 0.026987 -0.094772 0.112564 -0.146061 0.093121 -0.023463 -0.109481 0.274048 0.157039 0.147439 -0.027577 0.063243 -0.043567 0.247076 0.227174 0.106359 0.266293 0.254411 0.041791 0.018012 0.189004 -0.335598 0.123613 -0.145492 -0.089300 -0.047901 -0.042729 0.142629 0.020526 0.064906 -0.191170 0.100633 -0.044291 0.095146 -0.079421 -0.081473 0.087967 -0.116624 0.031546 -0.022679 -0.003882 0.084603 0.132388 0.161999 -0.064576 -0.100396 0.045165 0.008943 -0.020729 -0.151322 -0.024836 -0.109986 -0.055817 -0.132860 0.105737 -0.031052 0.149577 -0.246948 -0.041746 -0.070178 0.057144 -0.018015 -0.002031 0.024643 0.155865 0.008585 0.240675 -0.079238 0.069784 -0.043100 0.061496 -0.114035 -0.189748 0.039698 -0.009627 0.192302 -0.129240 -0.062110 0.052210 0.008838 -0.065302 -0.044375 0.189495 0.115093 -0.086158 0.008982 0.170813 -0.114847 -0.004282 -0.024329 0.026133 0.028860 0.054401 0.004282 -0.181147 0.195631 -0.077505 -0.071222 
chair -0.048935 -0.057478 0.031336 -0.080201 0.092599 -0.129777 0.079609 -0.019587 -0.089771 0.233127 0.131888 0.119401 -0.025060 0.053065 -0.036627 0.203316 0.182112 0.085298 0.225892 0.211679 0.037220 0.016187 0.158650 -0.278975 0.109444 -0.122236 -0.069470 -0.039899 -0.030510 0.115361 0.016949 0.050348 -0.154126 0.093574 -0.038663 0.080773 -0.066704 -0.074130 0.076364 -0.101011 0.030608 -0.018604 0.000164 0.068090 0.113753 0.129878 -0.050700 -0.078667 0.036887 0.003158 -0.019296 -0.123607 -0.019293 -0.094465 -0.050742 -0.108580 0.093460 -0.022954 0.119293 -0.209471 -0.031210 -0.063948 0.047036 -0.015595 -0.002896 0.024966 0.138718 0.007043 0.204924 -0.062298 0.061706 -0.033576 0.050747 -0.088916 -0.155948 0.034040 -0.009750 0.158634 -0.111630 -0.055766 0.046729 0.011389 -0.061867 -0.037766 0.156337 0.090357 -0.080215 0.003951 0.147229 -0.100320 0.005854 -0.015046 0.025953 0.027614 0.051783 0.006195 -0.152428 0.164350 -0.067242 -0.059155 
group -0.068755 -0.096798 0.039256 -0.123663 0.149612 -0.198354 0.120530 -0.026599 -0.150534 0.366399 0.207560 0.195790 -0.037937 0.090347 -0.049350 0.329882 0.296333 0.132701 0.354310 0.343949 0.062105 0.021891 0.244768 -0.449181 0.164922 -0.191912 -0.115075 -0.066340 -0.059061 0.188548 0.035371 0.082128 -0.246585 0.139869 -0.053992 0.120909 -0.097202 -0.112607 0.119638 -0.150516 0.043597 -0.039439 -0.007112 0.113937 0.177912 0.210541 -0.081146 -0.127785 0.049912 0.013316 -0.026445 -0.197586 -0.042841 -0.150448 -0.075529 -0.170033 0.138860 -0.039458 0.194585 -0.326907 -0.058110 -0.089392 0.068674 -0.020202 -0.003468 0.034272 0.212040 0.018996 0.321800 -0.100179 0.097426 -0.055694 0.082202 -0.145538 -0.249570 0.057424 -0.013212 0.256252 -0.167292 -0.079860 0.074328 0.019136 -0.098290 -0.057797 0.249050 0.147160 -0.123518 0.005706 0.223907 -0.160148 -0.002304 -0.030865 0.044859 0.033641 0.076571 0.011237 -0.236208 0.255895 -0.097475 -0.094589 
honors -0.105236 -0.128630 0.062161 -0.176808 0.219300 -0.297715 0.178499 -0.050257 -0.209948 0.532861 0.304496 0.292056 -0.052974 0.134992 -0.078533 0.495141 0.438614 0.196248 0.524752 0.507124 0.087008 0.027534 0.361299 -0.658008 0.250779 -0.286982 -0.157070 -0.096209 -0.074140 0.279185 0.040293 0.126187 -0.368345 0.201461 -0.073413 0.172871 -0.152179 -0.165708 0.188599 -0.218793 0.057077 -0.062648 -0.005189 0.168879 0.279750 0.301936 -0.122868 -0.204616 0.092520 0.013369 -0.035785 -0.299188 -0.060288 -0.223946 -0.115906 -0.260195 0.201955 -0.075771 0.302667 -0.479940 -0.077911 -0.129246 0.092793 -0.023109 -0.004697 0.051834 0.328443 0.032483 0.473445 -0.153947 0.142120 -0.084185 0.110838 -0.227057 -0.365150 0.088475 -0.026771 0.378245 -0.249269 -0.121287 0.107669 0.021208 -0.142244 -0.083561 0.370974 0.228538 -0.173482 0.011338 0.331325 -0.229756 0.007582 -0.050694 0.055211 0.051271 0.109999 0.012855 -0.361249 0.386702 -0.146437 -0.142533 
and -0.097276 -0.131342 0.059185 -0.170481 0.209214 -0.291129 0.173543 -0.041478 -0.210988 0.515795 0.294394 0.276458 -0.044880 0.130264 -0.067557 0.477001 0.425817 0.180754 0.506632 0.488813 0.082613 0.028302 0.350651 -0.627939 0.234396 -0.273427 -0.152305 -0.095757 -0.072038 0.273453 0.038875 0.115443 -0.355836 0.198819 -0.078008 0.174751 -0.141561 -0.165184 0.177371 -0.217635 0.062511 -0.068147 -0.007522 0.169971 0.261839 0.292425 -0.122366 -0.196054 0.083313 0.013703 -0.041371 -0.280154 -0.056419 -0.216580 -0.107835 -0.245836 0.198574 -0.068154 0.289117 -0.456537 -0.082170 -0.130141 0.091825 -0.025668 -0.010661 0.049344 0.310574 0.038745 0.454184 -0.145381 0.137799 -0.084551 0.112411 -0.209823 -0.357210 0.086039 -0.022545 0.356921 -0.236143 -0.109140 0.107236 0.019793 -0.135579 -0.080526 0.356735 0.221352 -0.163175 0.016870 0.316700 -0.225070 0.007178 -0.047638 0.059491 0.052034 0.109633 0.012598 -0.348333 0.373248 -0.141771 -0.139222 
to -0.087049 -0.108207 0.046159 -0.142103 0.182371 -0.246080 0.148331 -0.033089 -0.177854 0.440640 0.250757 0.243019 -0.043341 0.109891 -0.057882 0.403979 0.359188 0.159688 0.437606 0.413356 0.072535 0.029615 0.300548 -0.540960 0.200889 -0.236908 -0.132847 -0.080474 -0.055128 0.229959 0.034345 0.104075 -0.300815 0.173146 -0.065927 0.148661 -0.119471 -0.142417 0.157884 -0.182656 0.045988 -0.060361 0.000057 0.139398 0.230554 0.245758 -0.106988 -0.170503 0.076880 0.012641 -0.033992 -0.244564 -0.054330 -0.189391 -0.091681 -0.208756 0.164382 -0.053739 0.247356 -0.395264 -0.072738 -0.110628 0.081663 -0.015926 -0.010549 0.045494 0.261139 0.028864 0.388953 -0.127845 0.118239 -0.075885 0.097562 -0.186572 -0.303180 0.074143 -0.023243 0.309599 -0.196324 -0.099047 0.088668 0.012821 -0.115327 -0.072450 0.301201 0.187214 -0.148027 0.014242 0.277679 -0.190847 0.006301 -0.043865 0.044857 0.046051 0.092195 0.005121 -0.292944 0.322606 -0.121687 -0.121380 
will -0.067309 -0.092434 0.045914 -0.124768 0.154315 -0.214920 0.126584 -0.028747 -0.146796 0.368970 0.208674 0.203524 -0.029034 0.093758 -0.048134 0.348957 0.304399 0.135041 0.364955 0.358974 0.063236 0.025842 0.248499 -0.459642 0.169391 -0.194578 -0.112209 -0.065290 -0.057139 0.199083 0.024681 0.083752 -0.251955 0.145392 -0.055852 0.124568 -0.104131 -0.115112 0.130165 -0.160292 0.043338 -0.049133 -0.007413 0.118871 0.194467 0.216503 -0.091881 -0.138691 0.067197 0.010641 -0.026728 -0.205791 -0.041419 -0.164536 -0.082926 -0.182093 0.144343 -0.055637 0.205371 -0.333709 -0.053257 -0.094196 0.070086 -0.012805 -0.007559 0.033015 0.230221 0.023973 0.329104 -0.109544 0.104488 -0.061387 0.078014 -0.159086 -0.257641 0.059253 -0.020784 0.265696 -0.167823 -0.078384 0.080248 0.010809 -0.094454 -0.061270 0.259270 0.154490 -0.119947 0.008422 0.237647 -0.159749 0.002981 -0.034580 0.043287 0.041347 0.081729 0.009088 -0.250555 0.275499 -0.100920 -0.101502 
donald -0.075531 -0.093306 0.047954 -0.127713 0.158205 -0.227450 0.131653 -0.030385 -0.152285 0.393993 0.218833 0.212735 -0.034897 0.100404 -0.056123 0.364655 0.324465 0.143335 0.393832 0.377289 0.060863 0.024456 0.263639 -0.483173 0.180040 -0.215273 -0.119937 -0.067585 -0.050312 0.204234 0.022998 0.091221 -0.271133 0.157836 -0.060628 0.132075 -0.104091 -0.123375 0.135269 -0.163454 0.048623 -0.052855 0.001036 0.123878 0.205802 0.229033 -0.090831 -0.154257 0.069227 0.009420 -0.027069 -0.214288 -0.044817 -0.172715 -0.083179 -0.192751 0.148600 -0.057212 0.218367 -0.355536 -0.062375 -0.096581 0.067363 -0.018243 -0.005023 0.041363 0.236523 0.023941 0.351591 -0.118738 0.105418 -0.065396 0.086447 -0.162759 -0.273407 0.060362 -0.018872 0.271014 -0.179597 -0.082449 0.085404 0.017637 -0.097433 -0.059883 0.264621 0.167294 -0.129304 0.009336 0.242253 -0.166867 0.000888 -0.045654 0.046665 0.041210 0.086002 0.006421 -0.261399 0.288506 -0.104227 -0.112351 
in -0.098463 -0.137290 0.057541 -0.173923 0.223089 -0.298434 0.176340 -0.043925 -0.217461 0.533742 0.307749 0.297016 -0.053211 0.129053 -0.073772 0.496132 0.442699 0.195120 0.537321 0.512580 0.084297 0.033453 0.362778 -0.665600 0.246523 -0.287827 -0.159461 -0.094812 -0.072433 0.281787 0.044456 0.120085 -0.366298 0.206057 -0.081375 0.176280 -0.147445 -0.174747 0.190944 -0.226747 0.062255 -0.062629 -0.003027 0.171643 0.277886 0.303469 -0.130195 -0.205892 0.085563 0.015867 -0.044654 -0.296355 -0.063718 -0.233008 -0.118719 -0.259560 0.212679 -0.074916 0.300169 -0.486255 -0.084084 -0.130565 0.101191 -0.023676 -0.011770 0.046180 0.323395 0.032862 0.478350 -0.151939 0.149484 -0.092573 0.117940 -0.227098 -0.376071 0.083106 -0.023883 0.383159 -0.250321 -0.120888 0.114864 0.018893 -0.137623 -0.086746 0.369221 0.227278 -0.176875 0.009765 0.339717 -0.234393 0.008890 -0.056442 0.061390 0.051438 0.119270 0.009571 -0.362730 0.392427 -0.147439 -0.144479 
they -0.093263 -0.126147 0.059538 -0.165455 0.214433 -0.284743 0.164862 -0.046076 -0.209178 0.510225 0.289114 0.278553 -0.046274 0.130842 -0.069174 0.474835 0.417517 0.183999 0.501107 0.478140 0.081723 0.033250 0.345188 -0.625848 0.230117 -0.274418 -0.151452 -0.092778 -0.072913 0.265833 0.039291 0.112325 -0.355500 0.192684 -0.070278 0.166378 -0.144036 -0.155625 0.180509 -0.210768 0.059386 -0.067007 -0.001856 0.163419 0.262377 0.287167 -0.119545 -0.190367 0.085845 0.014723 -0.032643 -0.281162 -0.060217 -0.213209 -0.103299 -0.239319 0.197396 -0.070688 0.278692 -0.453628 -0.072631 -0.126624 0.089114 -0.020626 -0.008319 0.046286 0.309047 0.031471 0.448392 -0.143665 0.142375 -0.086275 0.105556 -0.214606 -0.351064 0.081972 -0.027581 0.358040 -0.229572 -0.109853 0.109069 0.016247 -0.126911 -0.086471 0.345796 0.218385 -0.162931 0.015124 0.314877 -0.218679 0.001595 -0.050512 0.054100 0.053664 0.104717 0.005993 -0.338159 0.367869 -0.134200 -0.136017 
skip -0.041978 -0.058526 0.030259 -0.081021 0.101437 -0.136495 0.082027 -0.017121 -0.101236 0.239837 0.138439 0.125573 -0.023136 0.062544 -0.033100 0.226707 0.202066 0.087116 0.235824 0.232031 0.041767 0.011511 0.163909 -0.294531 0.112708 -0.126437 -0.069918 -0.042786 -0.039496 0.127097 0.022044 0.051659 -0.167588 0.091433 -0.040322 0.080462 -0.068254 -0.077442 0.084198 -0.100341 0.023767 -0.031462 -0.006105 0.079450 0.127224 0.133428 -0.054111 -0.093389 0.044335 0.002511 -0.018016 -0.133259 -0.027605 -0.101817 -0.049078 -0.111541 0.089866 -0.033048 0.138614 -0.217577 -0.036206 -0.061931 0.042987 -0.016263 0.000523 0.023981 0.149009 0.013043 0.207486 -0.074791 0.069083 -0.040078 0.047470 -0.096382 -0.169273 0.040024 -0.014250 0.166843 -0.110122 -0.050914 0.044655 0.008243 -0.066179 -0.042466 0.163017 0.103866 -0.080904 0.005672 0.153860 -0.100736 0.005348 -0.023704 0.022371 0.029251 0.050341 0.002352 -0.161430 0.178087 -0.068155 -0.067405 
&amp; -0.072057 -0.100114 0.050757 -0.128762 0.161175 -0.226893 0.134211 -0.030446 -0.157731 0.397457 0.228904 0.217430 -0.040123 0.099881 -0.058261 0.365400 0.322181 0.145394 0.393663 0.377472 0.063470 0.021178 0.266699 -0.485471 0.184092 -0.214021 -0.116168 -0.068869 -0.061604 0.205292 0.027186 0.090617 -0.273640 0.157935 -0.060424 0.130076 -0.111317 -0.124746 0.141350 -0.167091 0.046119 -0.051703 -0.003202 0.130788 0.204297 0.228528 -0.098454 -0.148294 0.069602 0.010216 -0.030954 -0.217864 -0.048567 -0.170961 -0.089040 -0.189338 0.151952 -0.052676 0.217869 -0.357221 -0.056926 -0.095510 0.076913 -0.015051 -0.004571 0.032403 0.240264 0.023560 0.352663 -0.113363 0.107762 -0.067967 0.081135 -0.164864 -0.277852 0.061160 -0.018869 0.278371 -0.184969 -0.089638 0.085625 0.020465 -0.101248 -0.067090 0.278420 0.168056 -0.131187 0.011695 0.254372 -0.173032 0.007639 -0.036259 0.045870 0.042261 0.089295 0.011727 -0.265473 0.282818 -0.104201 -0.106239 
said -0.084794 -0.114851 0.056832 -0.151504 0.195683 -0.266553 0.150667 -0.044543 -0.183727 0.471058 0.260774 0.253166 -0.039645 0.115116 -0.065652 0.427273 0.384962 0.163744 0.460990 0.436065 0.077684 0.026466 0.312549 -0.574766 0.213709 -0.253656 -0.138915 -0.089148 -0.064987 0.247470 0.030483 0.101966 -0.324772 0.178918 -0.066395 0.150290 -0.127742 -0.148380 0.165796 -0.196715 0.051540 -0.059789 -0.002569 0.153145 0.247087 0.265689 -0.105750 -0.178404 0.078159 0.015704 -0.037997 -0.256149 -0.053269 -0.204859 -0.094560 -0.229182 0.178305 -0.062185 0.262435 -0.418640 -0.069294 -0.116869 0.089626 -0.017716 -0.005148 0.045931 0.287555 0.034293 0.411050 -0.136339 0.130091 -0.075565 0.101315 -0.195198 -0.320289 0.074247 -0.017452 0.327934 -0.208481 -0.099437 0.095874 0.015100 -0.122737 -0.074060 0.319314 0.198279 -0.154002 0.008382 0.289087 -0.202448 0.006332 -0.048466 0.055504 0.051635 0.097183 0.004478 -0.316121 0.333060 -0.123117 -0.131022 
this -0.076551 -0.100702 0.046408 -0.130473 0.158987 -0.222673 0.128430 -0.034695 -0.162307 0.393268 0.223333 0.215822 -0.036295 0.098253 -0.051264 0.369952 0.322490 0.144537 0.388420 0.374281 0.061862 0.023035 0.272203 -0.483885 0.176841 -0.215307 -0.122705 -0.070540 -0.053852 0.204093 0.027355 0.089942 -0.273564 0.157267 -0.054897 0.129096 -0.106964 -0.125960 0.137250 -0.162487 0.044604 -0.043951 -0.002425 0.130220 0.206005 0.224295 -0.096037 -0.148536 0.065032 0.014169 -0.024935 -0.220882 -0.046104 -0.171784 -0.080419 -0.185195 0.150201 -0.057143 0.219953 -0.355773 -0.062891 -0.101094 0.071136 -0.020983 -0.006786 0.035625 0.241046 0.029035 0.346416 -0.119287 0.102879 -0.068501 0.087589 -0.166123 -0.274154 0.060081 -0.017274 0.275392 -0.185658 -0.087055 0.081125 0.017616 -0.097100 -0.066958 0.271581 0.171187 -0.131518 0.012363 0.248734 -0.167128 0.004598 -0.040330 0.047875 0.044660 0.079957 0.006542 -0.264543 0.288051 -0.103343 -0.106707 
participate -0.067215 -0.094203 0.042188 -0.127318 0.151838 -0.212122 0.126777 -0.027274 -0.149162 0.384077 0.213532 0.208537 -0.034566 0.094343 -0.052676 0.350713 0.313264 0.132993 0.372772 0.360359 0.057304 0.023721 0.251656 -0.461291 0.176152 -0.202223 -0.116140 -0.066127 -0.051922 0.201880 0.031976 0.086322 -0.258975 0.148253 -0.057792 0.123825 -0.104230 -0.116751 0.132315 -0.162053 0.039134 -0.047334 -0.004299 0.119940 0.199247 0.219236 -0.086366 -0.146004 0.067762 0.008999 -0.023185 -0.212737 -0.042241 -0.165692 -0.084560 -0.180659 0.144117 -0.045472 0.215800 -0.340590 -0.053486 -0.091459 0.068635 -0.014941 -0.004887 0.038535 0.229952 0.029117 0.328700 -0.108685 0.105473 -0.064039 0.081144 -0.155420 -0.257276 0.057335 -0.022965 0.263592 -0.171440 -0.086534 0.075740 0.012529 -0.102094 -0.058832 0.254579 0.158954 -0.121152 0.011348 0.234291 -0.168456 0.002683 -0.038385 0.038243 0.038343 0.080469 0.006348 -0.254266 0.275656 -0.103372 -0.099732 
honorees -0.069573 -0.095775 0.046225 -0.126680 0.157321 -0.205933 0.118623 -0.034288 -0.151274 0.372218 0.215042 0.201161 -0.031495 0.088921 -0.049458 0.346103 0.307101 0.133438 0.362517 0.356523 0.057558 0.017977 0.248533 -0.454433 0.171576 -0.203121 -0.116053 -0.069616 -0.057021 0.195213 0.023962 0.088865 -0.260394 0.146734 -0.055325 0.119347 -0.105783 -0.114015 0.131495 -0.152450 0.045924 -0.046564 0.000248 0.114703 0.189635 0.215186 -0.092126 -0.143973 0.058684 0.009758 -0.023987 -0.203990 -0.045966 -0.154545 -0.078355 -0.179180 0.149420 -0.049266 0.204345 -0.334124 -0.057631 -0.088718 0.065419 -0.019341 -0.000622 0.029626 0.224562 0.023331 0.330866 -0.107814 0.104386 -0.060208 0.076417 -0.159182 -0.258725 0.064158 -0.015626 0.259086 -0.165967 -0.079789 0.071287 0.009412 -0.099672 -0.058922 0.253034 0.157545 -0.121146 0.007428 0.232241 -0.162087 -0.000384 -0.040627 0.040832 0.035924 0.081626 0.002968 -0.247544 0.264901 -0.105467 -0.103918 
@nytimes: -0.047573 -0.064827 0.029961 -0.077628 0.102329 -0.135058 0.079747 -0.024366 -0.099720 0.241868 0.136471 0.133121 -0.019530 0.062658 -0.038377 0.228253 0.196882 0.081886 0.236409 0.231634 0.044833 0.014676 0.163574 -0.292565 0.111599 -0.130182 -0.067950 -0.046895 -0.034964 0.123407 0.015344 0.049644 -0.161952 0.093659 -0.030864 0.076477 -0.069445 -0.080943 0.089769 -0.099504 0.032431 -0.031214 -0.003716 0.082984 0.127633 0.143146 -0.056431 -0.092772 0.040518 0.004461 -0.021054 -0.136747 -0.027003 -0.105454 -0.054767 -0.119926 0.095074 -0.033362 0.137630 -0.216747 -0.039341 -0.055980 0.039289 -0.013766 -0.001646 0.023159 0.151130 0.019512 0.218858 -0.072137 0.061921 -0.040235 0.053521 -0.102428 -0.163961 0.038606 -0.011164 0.166395 -0.109518 -0.054531 0.051686 0.007353 -0.058932 -0.043788 0.164451 0.108439 -0.077857 0.008275 0.155727 -0.108868 -0.001780 -0.026243 0.024345 0.024537 0.050686 0.008214 -0.163646 0.176442 -0.068057 -0.062164 
not -0.060400 -0.083628 0.041869 -0.106228 0.134771 -0.191168 0.103776 -0.030150 -0.132289 0.323715 0.183049 0.179322 -0.024430 0.079819 -0.050048 0.302510 0.274919 0.116373 0.326942 0.311425 0.051025 0.021789 0.226733 -0.404101 0.148427 -0.172004 -0.100661 -0.057119 -0.048830 0.170446 0.021775 0.072042 -0.228616 0.123876 -0.051701 0.104374 -0.093683 -0.104751 0.117543 -0.136606 0.038166 -0.037565 -0.004422 0.102707 0.169778 0.192309 -0.073347 -0.122308 0.059009 0.010425 -0.027100 -0.180826 -0.037314 -0.145023 -0.071866 -0.155896 0.124508 -0.049719 0.187110 -0.291658 -0.054833 -0.076870 0.064596 -0.011325 -0.007878 0.034030 0.206323 0.026723 0.287511 -0.093507 0.093586 -0.061193 0.072085 -0.139162 -0.233166 0.048357 -0.013339 0.230544 -0.152889 -0.070797 0.069780 0.013666 -0.086474 -0.049499 0.230967 0.139898 -0.109522 0.008314 0.206350 -0.148247 0.007627 -0.034928 0.032612 0.033179 0.065930 0.010823 -0.226028 0.238075 -0.090832 -0.085054 
https://t… -0.071837 -0.084140 0.042370 -0.112336 0.148633 -0.194385 0.115474 -0.033805 -0.145412 0.356039 0.196710 0.194017 -0.031187 0.087459 -0.054842 0.327265 0.288566 0.126797 0.352623 0.330989 0.058578 0.025417 0.236936 -0.435378 0.156913 -0.186759 -0.102948 -0.067101 -0.055431 0.185760 0.024998 0.079447 -0.247463 0.139822 -0.055963 0.120956 -0.092200 -0.114748 0.120282 -0.145217 0.043167 -0.037628 -0.000717 0.109169 0.182891 0.197857 -0.085444 -0.129096 0.051872 0.007935 -0.030149 -0.192636 -0.036122 -0.150306 -0.074975 -0.170166 0.132925 -0.043978 0.190896 -0.312815 -0.056722 -0.087305 0.069889 -0.021456 -0.008345 0.033480 0.217874 0.021287 0.308315 -0.105809 0.097312 -0.059563 0.073819 -0.144633 -0.240228 0.061592 -0.015875 0.250032 -0.165565 -0.081061 0.073555 0.017884 -0.087321 -0.059884 0.238849 0.153174 -0.118637 0.011755 0.218219 -0.153456 0.008387 -0.032136 0.036258 0.036658 0.079964 0.002080 -0.236833 0.249724 -0.096551 -0.097768 
attend -0.041351 -0.051533 0.028576 -0.073885 0.098295 -0.127260 0.074304 -0.023643 -0.089151 0.230852 0.128053 0.125928 -0.021821 0.055478 -0.036924 0.206237 0.186603 0.077948 0.223267 0.215946 0.036864 0.009733 0.151433 -0.272997 0.101742 -0.123941 -0.066222 -0.042178 -0.031448 0.119309 0.015947 0.048287 -0.161458 0.088528 -0.035904 0.078605 -0.060933 -0.075537 0.080747 -0.095227 0.029384 -0.032585 -0.003096 0.075927 0.113937 0.131489 -0.050115 -0.088126 0.043356 0.003682 -0.019581 -0.123742 -0.023958 -0.096261 -0.050703 -0.109254 0.087108 -0.029197 0.131649 -0.208611 -0.031654 -0.053509 0.036872 -0.009439 -0.003537 0.017224 0.136959 0.017667 0.199833 -0.065603 0.059753 -0.042452 0.044490 -0.100013 -0.152973 0.032402 -0.007351 0.161255 -0.106021 -0.045712 0.046354 0.004360 -0.057177 -0.041651 0.150294 0.100953 -0.070609 0.004729 0.144245 -0.103410 0.004394 -0.028663 0.021454 0.025327 0.045649 0.001753 -0.147309 0.163602 -0.066711 -0.059242 
won't -0.049219 -0.060104 0.030809 -0.086193 0.103467 -0.140331 0.088772 -0.019291 -0.100096 0.255193 0.139472 0.140405 -0.028374 0.067280 -0.034849 0.236277 0.207390 0.086047 0.254134 0.240366 0.036728 0.012051 0.176659 -0.312526 0.117146 -0.135314 -0.070752 -0.048158 -0.034824 0.132281 0.016095 0.052992 -0.177217 0.100154 -0.036059 0.083688 -0.067447 -0.081358 0.090037 -0.103380 0.030201 -0.033306 -0.001034 0.085810 0.133118 0.141913 -0.063674 -0.093894 0.046685 0.011437 -0.017752 -0.144905 -0.029103 -0.111452 -0.050415 -0.117680 0.102191 -0.036744 0.139197 -0.226472 -0.041196 -0.063135 0.041621 -0.009569 -0.006383 0.024639 0.158141 0.013053 0.220151 -0.071163 0.071632 -0.037791 0.055751 -0.101757 -0.172549 0.038659 -0.013788 0.179458 -0.118754 -0.059815 0.050356 0.011026 -0.062948 -0.037834 0.176957 0.112275 -0.084260 0.009694 0.158160 -0.109427 -0.000317 -0.028823 0.032083 0.021612 0.053398 0.007249 -0.171766 0.181046 -0.064760 -0.072633 
lady -0.030773 -0.038806 0.019831 -0.056176 0.072161 -0.098532 0.055319 -0.017992 -0.072603 0.172507 0.099466 0.094098 -0.011489 0.039993 -0.023704 0.161571 0.138845 0.061082 0.167015 0.166301 0.023999 0.013173 0.115590 -0.212881 0.080662 -0.089575 -0.052422 -0.025977 -0.025452 0.091005 0.012765 0.037216 -0.119906 0.069148 -0.021095 0.054277 -0.044139 -0.054854 0.060169 -0.073681 0.023230 -0.019281 -0.006515 0.056214 0.088793 0.097422 -0.036319 -0.066068 0.033009 0.009209 -0.007613 -0.093842 -0.016900 -0.068577 -0.036424 -0.083129 0.065807 -0.017306 0.098326 -0.152003 -0.026326 -0.037738 0.032321 -0.003789 0.000611 0.016982 0.105211 0.011418 0.154501 -0.050923 0.044122 -0.027636 0.039432 -0.071389 -0.114538 0.031220 -0.010718 0.121392 -0.074602 -0.041612 0.036231 0.002418 -0.048198 -0.029951 0.116063 0.074597 -0.060651 0.009229 0.106151 -0.077713 0.005937 -0.017049 0.021112 0.012558 0.034166 0.006796 -0.114347 0.120571 -0.049936 -0.040953 
@cbsnews: -0.034099 -0.044514 0.020924 -0.054894 0.068892 -0.096336 0.049845 -0.014665 -0.060157 0.165070 0.088518 0.084386 -0.016692 0.036797 -0.019165 0.149511 0.130185 0.057827 0.156653 0.156849 0.025332 0.005727 0.110457 -0.196900 0.069600 -0.082750 -0.048541 -0.034070 -0.026144 0.086853 0.008707 0.040173 -0.111902 0.065389 -0.023125 0.052181 -0.042850 -0.051757 0.051500 -0.069371 0.022420 -0.019150 -0.004558 0.052067 0.079887 0.096737 -0.042073 -0.056649 0.022713 0.008955 -0.008125 -0.084455 -0.018371 -0.065074 -0.032318 -0.079935 0.061541 -0.020453 0.088376 -0.145417 -0.019402 -0.036412 0.032365 -0.003949 0.001269 0.011023 0.103163 0.012083 0.145233 -0.045916 0.043596 -0.026645 0.036450 -0.071524 -0.108205 0.022186 -0.003990 0.114789 -0.069686 -0.033780 0.037998 0.003665 -0.045965 -0.026377 0.112386 0.068831 -0.054173 0.000235 0.104308 -0.074348 0.004180 -0.017408 0.021893 0.021705 0.038555 0.001508 -0.110292 0.115128 -0.039111 -0.044821 
pres. -0.025736 -0.037898 0.018140 -0.055636 0.064558 -0.086488 0.055681 -0.017244 -0.059059 0.149522 0.085663 0.086181 -0.010062 0.037133 -0.018213 0.139835 0.128160 0.059745 0.153598 0.143193 0.022242 0.007950 0.106005 -0.188685 0.073391 -0.078233 -0.046268 -0.031998 -0.019680 0.079307 0.012504 0.033659 -0.110602 0.059066 -0.026783 0.054193 -0.041246 -0.045885 0.055212 -0.064961 0.020894 -0.019957 -0.003564 0.046645 0.083627 0.085882 -0.039787 -0.058037 0.029454 0.000743 -0.010485 -0.082137 -0.014413 -0.064995 -0.035813 -0.068802 0.062320 -0.020332 0.088177 -0.141997 -0.024795 -0.041896 0.030416 -0.006362 -0.004065 0.009139 0.089936 0.014444 0.137250 -0.041637 0.046112 -0.029885 0.035541 -0.065203 -0.101757 0.028476 -0.012501 0.103922 -0.074965 -0.030902 0.028869 0.002665 -0.034554 -0.024352 0.105421 0.065059 -0.053576 0.005862 0.099299 -0.062135 0.002769 -0.015059 0.022182 0.018925 0.032141 0.000108 -0.101664 0.110342 -0.037721 -0.041559 
after -0.062746 -0.085518 0.043980 -0.109555 0.146465 -0.197564 0.119409 -0.025608 -0.142756 0.348162 0.196196 0.189163 -0.030985 0.081777 -0.044174 0.320937 0.279458 0.122896 0.344883 0.330877 0.059846 0.018187 0.239692 -0.428526 0.160426 -0.186558 -0.103152 -0.066841 -0.045510 0.185005 0.023009 0.076409 -0.244100 0.132212 -0.053457 0.111148 -0.090949 -0.103586 0.121722 -0.146940 0.038687 -0.036861 -0.002345 0.112359 0.183859 0.199482 -0.082143 -0.134564 0.059626 0.013629 -0.020107 -0.193749 -0.043392 -0.148791 -0.068769 -0.168719 0.132635 -0.044834 0.191236 -0.312599 -0.052497 -0.083728 0.058828 -0.019149 -0.007152 0.034544 0.206491 0.024276 0.301543 -0.100151 0.097285 -0.053540 0.075322 -0.148457 -0.241312 0.050563 -0.018054 0.240113 -0.157820 -0.073799 0.071638 0.010400 -0.086479 -0.051681 0.236616 0.144525 -0.114074 0.007727 0.213687 -0.148891 0.007319 -0.030127 0.043591 0.037665 0.073056 0.007612 -0.230509 0.244976 -0.092044 -0.091316 
some -0.082331 -0.103659 0.050712 -0.136685 0.180849 -0.243443 0.139661 -0.034267 -0.166903 0.426757 0.237914 0.235012 -0.039397 0.105265 -0.065081 0.396967 0.349904 0.149393 0.420795 0.398399 0.063753 0.026093 0.291731 -0.521543 0.195115 -0.228417 -0.129895 -0.078845 -0.057079 0.221203 0.035553 0.101259 -0.291733 0.169774 -0.056466 0.136773 -0.119018 -0.129119 0.144219 -0.174629 0.049843 -0.050301 -0.004179 0.132230 0.218778 0.241572 -0.097099 -0.162718 0.073835 0.014201 -0.034691 -0.239345 -0.043897 -0.184232 -0.092281 -0.199676 0.161006 -0.051040 0.239291 -0.384296 -0.064306 -0.110412 0.078638 -0.022773 -0.009690 0.043239 0.261195 0.028882 0.377888 -0.122676 0.114084 -0.075144 0.087585 -0.179502 -0.295385 0.071505 -0.022878 0.297377 -0.197077 -0.090429 0.085753 0.021164 -0.111571 -0.071054 0.298232 0.182269 -0.140604 0.008060 0.269699 -0.189005 0.008923 -0.040264 0.053091 0.047235 0.092045 0.003277 -0.282945 0.307873 -0.116834 -0.112074 
would -0.092612 -0.114535 0.052433 -0.155350 0.201128 -0.272025 0.159308 -0.037812 -0.193334 0.481565 0.266735 0.261654 -0.039733 0.114318 -0.072483 0.442406 0.395927 0.168546 0.465615 0.446113 0.077171 0.026535 0.323806 -0.588538 0.218836 -0.254947 -0.145045 -0.089619 -0.073753 0.248884 0.035545 0.113516 -0.325267 0.181456 -0.067884 0.158651 -0.129906 -0.147327 0.166550 -0.203626 0.054735 -0.057874 -0.000984 0.147529 0.245653 0.268120 -0.114512 -0.177422 0.073410 0.012047 -0.037620 -0.265223 -0.055056 -0.206246 -0.098234 -0.231030 0.181354 -0.058741 0.266029 -0.427277 -0.068656 -0.118164 0.094423 -0.024436 -0.005938 0.041651 0.290111 0.033525 0.420670 -0.143542 0.125037 -0.077664 0.102355 -0.198780 -0.334658 0.078089 -0.017828 0.340848 -0.222171 -0.101615 0.095021 0.015769 -0.117801 -0.075602 0.326142 0.195592 -0.155816 0.010574 0.302168 -0.203627 0.007051 -0.048668 0.052071 0.053499 0.098276 0.005825 -0.321180 0.339179 -0.133040 -0.128696 
boycott -0.068798 -0.092366 0.036741 -0.115455 0.149352 -0.197620 0.119142 -0.029957 -0.141055 0.355626 0.201848 0.190740 -0.031824 0.082875 -0.052479 0.324836 0.287003 0.128884 0.353835 0.329664 0.058322 0.025555 0.236174 -0.436730 0.157472 -0.184631 -0.103373 -0.066024 -0.056349 0.189814 0.024859 0.079525 -0.245685 0.133300 -0.048904 0.120383 -0.102107 -0.110467 0.126953 -0.145074 0.040337 -0.037045 -0.001590 0.109429 0.186607 0.202950 -0.087172 -0.134406 0.053449 0.014790 -0.023284 -0.190715 -0.041259 -0.149400 -0.078708 -0.167245 0.140317 -0.043038 0.192441 -0.315233 -0.048882 -0.090734 0.071090 -0.017424 -0.005839 0.036849 0.218014 0.021054 0.311299 -0.105540 0.097653 -0.060952 0.072336 -0.151182 -0.246800 0.054612 -0.019984 0.244476 -0.161281 -0.076105 0.069112 0.010060 -0.093936 -0.060718 0.241369 0.146742 -0.113513 0.007014 0.222384 -0.155537 0.008824 -0.034137 0.042790 0.037845 0.072338 0.011088 -0.235822 0.254593 -0.094845 -0.097863 
wh -0.061040 -0.082093 0.034904 -0.115114 0.134621 -0.191902 0.109833 -0.026969 -0.134857 0.335614 0.191573 0.181192 -0.032981 0.079059 -0.050810 0.312184 0.273597 0.123843 0.336233 0.316762 0.053998 0.024054 0.227523 -0.412714 0.156673 -0.176787 -0.097157 -0.057918 -0.048175 0.181736 0.030321 0.076172 -0.234808 0.125956 -0.054142 0.108762 -0.088515 -0.109347 0.112231 -0.141936 0.035568 -0.042030 -0.006341 0.105374 0.174310 0.197426 -0.076531 -0.126939 0.051428 0.014167 -0.023387 -0.184303 -0.038490 -0.147660 -0.072124 -0.166234 0.133346 -0.040853 0.184384 -0.298445 -0.045795 -0.088313 0.067089 -0.013100 -0.000686 0.028285 0.204324 0.022571 0.301734 -0.094883 0.089105 -0.055675 0.073467 -0.145281 -0.233839 0.054704 -0.013675 0.238256 -0.150253 -0.073360 0.066650 0.018090 -0.082530 -0.056818 0.231355 0.138701 -0.106219 0.010222 0.214887 -0.146620 0.000655 -0.034137 0.034241 0.032286 0.069285 0.007643 -0.225154 0.238229 -0.091374 -0.091220 
reception -0.069670 -0.100272 0.040776 -0.124830 0.159697 -0.217161 0.123698 -0.036474 -0.161822 0.387074 0.222305 0.207056 -0.036673 0.098948 -0.053992 0.357132 0.320942 0.137028 0.390741 0.371504 0.067837 0.018974 0.266263 -0.484679 0.178724 -0.212865 -0.120871 -0.068402 -0.061383 0.210315 0.026786 0.090120 -0.274600 0.151386 -0.057224 0.129376 -0.103200 -0.124830 0.132970 -0.167657 0.044589 -0.048403 0.001030 0.126473 0.202915 0.223152 -0.096271 -0.147358 0.064521 0.014880 -0.026487 -0.219208 -0.047366 -0.167599 -0.080013 -0.191075 0.155276 -0.047297 0.218380 -0.354189 -0.054091 -0.098283 0.072713 -0.014567 -0.007927 0.038089 0.236081 0.024816 0.346753 -0.113338 0.101896 -0.067083 0.087091 -0.165654 -0.266967 0.066307 -0.015333 0.279644 -0.183618 -0.080853 0.083604 0.013301 -0.096756 -0.060640 0.268066 0.164782 -0.129334 0.009065 0.243357 -0.173225 0.008351 -0.033975 0.045136 0.044836 0.079276 0.008404 -0.260737 0.281153 -0.101985 -0.101803 
avoid -0.105674 -0.136612 0.063038 -0.176459 0.224123 -0.312961 0.177902 -0.050264 -0.226409 0.550043 0.313171 0.303471 -0.056574 0.139576 -0.075536 0.511078 0.456608 0.200111 0.544553 0.517402 0.094094 0.032485 0.374396 -0.670404 0.253995 -0.298210 -0.166215 -0.098281 -0.074531 0.287629 0.034765 0.125897 -0.381699 0.212437 -0.080547 0.184980 -0.147363 -0.169373 0.188156 -0.223633 0.064038 -0.069024 -0.004027 0.183891 0.285236 0.317079 -0.125515 -0.201852 0.087144 0.012936 -0.042360 -0.308818 -0.062466 -0.233935 -0.113350 -0.267231 0.210054 -0.077091 0.305234 -0.489493 -0.087890 -0.132554 0.102666 -0.026912 -0.009628 0.047449 0.338199 0.039562 0.487028 -0.160073 0.149649 -0.086150 0.124982 -0.233655 -0.382711 0.088325 -0.022889 0.391297 -0.247774 -0.121242 0.115845 0.027724 -0.141634 -0.089318 0.374471 0.234597 -0.179441 0.019759 0.343301 -0.234664 0.008938 -0.054130 0.061490 0.053122 0.122681 0.012766 -0.371483 0.401502 -0.156459 -0.151383 
skipping -0.014078 -0.012759 0.008540 -0.023052 0.026484 -0.041211 0.021545 -0.007158 -0.026787 0.061749 0.033978 0.033628 -0.008973 0.015977 -0.010185 0.055036 0.055110 0.019082 0.067445 0.064418 0.010100 0.003158 0.044625 -0.077121 0.024663 -0.034609 -0.018280 -0.014901 -0.010503 0.028398 0.005872 0.009477 -0.037995 0.028002 -0.010643 0.024532 -0.021999 -0.019702 0.020548 -0.026978 0.009626 -0.013600 -0.001486 0.023111 0.035820 0.037350 -0.011766 -0.029347 0.012680 0.004715 -0.001220 -0.037532 -0.007631 -0.022371 -0.016801 -0.027925 0.024829 -0.009854 0.039459 -0.061612 -0.011070 -0.018086 0.013855 -0.005728 0.001697 0.008045 0.038849 0.008408 0.057235 -0.014766 0.018512 -0.008120 0.012442 -0.026259 -0.039323 0.007199 -0.003522 0.046095 -0.025281 -0.015121 0.012507 -0.002721 -0.018485 -0.007991 0.044099 0.024296 -0.021972 0.001005 0.035684 -0.031002 0.004218 -0.010569 0.007599 0.002349 0.014120 0.002317 -0.041184 0.046252 -0.018741 -0.021548 
distraction" -0.097407 -0.130318 0.058262 -0.164043 0.200750 -0.280971 0.161761 -0.048524 -0.208032 0.504926 0.282968 0.277443 -0.048964 0.122683 -0.071694 0.466261 0.417664 0.180376 0.491086 0.472388 0.085872 0.033971 0.337087 -0.613441 0.235888 -0.262543 -0.146574 -0.092516 -0.070340 0.260127 0.038999 0.117462 -0.349879 0.187791 -0.067224 0.166867 -0.136159 -0.155561 0.178843 -0.211336 0.060794 -0.062932 -0.006766 0.164472 0.258060 0.282037 -0.123403 -0.183399 0.078628 0.009934 -0.038052 -0.277561 -0.055494 -0.215672 -0.109234 -0.239862 0.187595 -0.065032 0.282979 -0.452017 -0.074785 -0.124760 0.093149 -0.023656 -0.001389 0.050146 0.297914 0.037630 0.441013 -0.144739 0.131122 -0.080665 0.110046 -0.207624 -0.350389 0.085594 -0.026326 0.358262 -0.232798 -0.111773 0.103209 0.024714 -0.134718 -0.076157 0.342870 0.212770 -0.161325 0.014110 0.314047 -0.213088 0.003497 -0.047221 0.056695 0.053193 0.112919 0.012492 -0.331566 0.361730 -0.137008 -0.133463 
them -0.025379 -0.034108 0.007924 -0.040994 0.051155 -0.075003 0.039579 -0.010696 -0.049136 0.122121 0.072969 0.063720 -0.005782 0.031632 -0.018380 0.116357 0.097187 0.044591 0.126271 0.112135 0.026130 0.002674 0.079904 -0.153276 0.059931 -0.063552 -0.042731 -0.024706 -0.015405 0.068153 0.011935 0.028335 -0.087179 0.048201 -0.018272 0.040670 -0.034406 -0.042693 0.038874 -0.052986 0.015026 -0.010993 -0.004130 0.040893 0.063055 0.072870 -0.030181 -0.042994 0.016687 0.003563 -0.009060 -0.063704 -0.014610 -0.056926 -0.024337 -0.061435 0.052441 -0.016783 0.069594 -0.115636 -0.016356 -0.035298 0.021568 -0.001934 -0.005569 0.014109 0.072414 0.013154 0.107962 -0.040997 0.031888 -0.022351 0.029367 -0.053481 -0.090341 0.024677 -0.000024 0.090827 -0.051832 -0.028028 0.021336 -0.000493 -0.029654 -0.016564 0.089518 0.045736 -0.035833 0.003703 0.072523 -0.058671 0.004742 -0.017239 0.016739 0.007257 0.028016 0.002691 -0.086399 0.093933 -0.028877 -0.032095 
"political -0.102269 -0.132019 0.061170 -0.174802 0.219903 -0.310738 0.179780 -0.044801 -0.220726 0.551454 0.315008 0.293646 -0.055212 0.137862 -0.075594 0.501499 0.450887 0.199601 0.541872 0.512248 0.089212 0.033963 0.369823 -0.667966 0.257614 -0.286036 -0.163143 -0.099470 -0.079734 0.291394 0.033933 0.127107 -0.373145 0.209057 -0.074880 0.181370 -0.151357 -0.176263 0.190287 -0.222126 0.058379 -0.065577 -0.005111 0.173267 0.280976 0.314589 -0.134324 -0.201033 0.087526 0.010334 -0.034414 -0.306991 -0.057250 -0.228309 -0.113719 -0.263193 0.205012 -0.069880 0.309844 -0.488014 -0.084287 -0.134343 0.102386 -0.020242 -0.001550 0.053599 0.334367 0.037628 0.485137 -0.154784 0.141464 -0.093023 0.122536 -0.233140 -0.373839 0.088975 -0.027354 0.388983 -0.243962 -0.116431 0.118305 0.020641 -0.138550 -0.091899 0.371892 0.236797 -0.178192 0.014599 0.340595 -0.241580 0.011678 -0.057708 0.060588 0.051204 0.121520 0.012480 -0.367508 0.400270 -0.150211 -0.152591 
because -0.014034 -0.018799 0.002967 -0.016210 0.028083 -0.035948 0.022136 -0.006838 -0.022906 0.066147 0.034497 0.030171 -0.002125 0.017493 -0.013102 0.061379 0.054760 0.024941 0.067547 0.063888 0.013843 0.001661 0.042456 -0.082750 0.032647 -0.034396 -0.017815 -0.010779 -0.008720 0.037692 0.006546 0.016057 -0.039358 0.024478 -0.005517 0.016515 -0.017805 -0.018177 0.025456 -0.027111 0.011893 -0.007509 -0.000634 0.024568 0.034832 0.035049 -0.019922 -0.023330 0.009299 0.002021 -0.001807 -0.034045 -0.011424 -0.027853 -0.014218 -0.033165 0.021084 -0.008400 0.030560 -0.053712 -0.005351 -0.013477 0.009800 -0.001307 -0.001698 0.005824 0.033109 0.003366 0.054278 -0.016702 0.018471 -0.009151 0.011736 -0.028749 -0.048396 0.012872 -0.001036 0.041011 -0.028168 -0.010914 0.017852 0.006357 -0.018478 -0.009943 0.044396 0.025521 -0.023973 0.003882 0.038965 -0.028524 0.005470 -0.008219 0.006722 0.004290 0.014805 0.006491 -0.047300 0.046109 -0.013187 -0.021876 
time -0.074543 -0.096197 0.041076 -0.129145 0.163564 -0.219471 0.126797 -0.028996 -0.156218 0.391071 0.222168 0.209568 -0.033206 0.094768 -0.055700 0.364378 0.315716 0.136483 0.385184 0.369028 0.068935 0.021297 0.263174 -0.480824 0.184207 -0.205095 -0.116604 -0.069076 -0.051377 0.201418 0.024826 0.094089 -0.269654 0.147910 -0.061357 0.126228 -0.110624 -0.121620 0.131927 -0.162697 0.046398 -0.043091 -0.006465 0.120646 0.202463 0.221723 -0.096471 -0.147906 0.066494 0.013144 -0.032354 -0.214473 -0.044695 -0.163385 -0.084250 -0.187789 0.150821 -0.056935 0.222996 -0.350361 -0.059427 -0.093769 0.068211 -0.020113 -0.005321 0.038439 0.239263 0.026547 0.348151 -0.111301 0.104385 -0.067623 0.086612 -0.168362 -0.270912 0.059023 -0.021225 0.272382 -0.180573 -0.087121 0.078497 0.010223 -0.100610 -0.069361 0.263603 0.163695 -0.133534 0.006062 0.241724 -0.174274 0.009638 -0.036392 0.042694 0.036560 0.084777 0.011916 -0.260095 0.288267 -0.104045 -0.109742 
out -0.039449 -0.049365 0.021518 -0.066121 0.089097 -0.120897 0.065082 -0.016510 -0.085391 0.200599 0.111004 0.114085 -0.013408 0.048637 -0.029688 0.192654 0.169774 0.072665 0.199290 0.198700 0.037741 0.017330 0.138150 -0.252483 0.092315 -0.112674 -0.059189 -0.034206 -0.021892 0.112067 0.013009 0.051461 -0.146089 0.075286 -0.027817 0.061864 -0.060299 -0.060960 0.073243 -0.087599 0.018738 -0.024429 -0.003515 0.063473 0.110385 0.112991 -0.043521 -0.075886 0.034771 0.005332 -0.010473 -0.117935 -0.021336 -0.086654 -0.043278 -0.101566 0.076451 -0.030910 0.113449 -0.189987 -0.034360 -0.046283 0.038602 -0.012698 -0.000650 0.020029 0.127696 0.018293 0.180992 -0.060046 0.055790 -0.036782 0.039087 -0.091266 -0.144431 0.029170 -0.009396 0.137520 -0.089389 -0.048266 0.038554 0.005600 -0.056846 -0.033875 0.140577 0.084363 -0.070999 0.005288 0.126307 -0.094297 0.002472 -0.020958 0.023411 0.021886 0.043358 0.005874 -0.136693 0.152486 -0.058721 -0.051364 
there -0.001654 -0.003512 0.006354 -0.007747 0.007058 -0.019220 0.012209 -0.003967 -0.011337 0.026704 0.014107 0.017093 0.003532 0.013050 -0.009447 0.022069 0.020499 0.009465 0.026381 0.030605 0.004559 0.001687 0.014441 -0.034740 0.017994 -0.018169 -0.005211 -0.004159 -0.005527 0.017787 0.001446 0.004881 -0.020665 0.005479 0.000649 0.007155 -0.011008 -0.011621 0.012055 -0.007450 0.001361 -0.008885 0.000561 0.013293 0.017756 0.014757 -0.007740 -0.012541 0.003127 0.002566 -0.005422 -0.011334 -0.002265 -0.017196 -0.007229 -0.011970 0.010329 -0.004778 0.018060 -0.022759 -0.006079 -0.005267 0.000295 -0.005487 0.001940 -0.003015 0.015014 -0.000066 0.021539 -0.013641 0.005248 -0.003599 0.003694 -0.012956 -0.021206 0.000916 0.003166 0.021501 -0.013665 -0.003476 0.004122 0.000444 -0.007102 -0.000587 0.021783 0.007688 -0.010856 -0.004044 0.021015 -0.012152 -0.000919 -0.007511 0.001310 0.000420 0.003552 -0.002200 -0.020535 0.024110 -0.005910 -0.006525 
i -0.028759 -0.037192 0.017977 -0.048193 0.063597 -0.090575 0.053128 -0.011151 -0.059706 0.159851 0.092644 0.085037 -0.014611 0.036486 -0.022348 0.143010 0.124334 0.054121 0.157779 0.151905 0.026231 0.009627 0.105007 -0.188564 0.070639 -0.080397 -0.050613 -0.027627 -0.017751 0.082745 0.009053 0.031912 -0.103436 0.056726 -0.026190 0.049031 -0.043069 -0.053006 0.054413 -0.064052 0.022748 -0.017465 -0.006598 0.050366 0.082864 0.092416 -0.031801 -0.064143 0.024857 0.000577 -0.008845 -0.082267 -0.019958 -0.069415 -0.028494 -0.070854 0.059979 -0.024013 0.087700 -0.143855 -0.023120 -0.043771 0.029704 -0.012411 -0.003876 0.013245 0.094725 0.015212 0.140702 -0.042317 0.046005 -0.022100 0.029209 -0.066984 -0.106406 0.028187 -0.004106 0.106712 -0.076940 -0.038499 0.035456 0.009397 -0.042683 -0.027292 0.112627 0.069955 -0.055339 0.002663 0.099597 -0.070453 0.001321 -0.018389 0.015394 0.014534 0.032130 0.000604 -0.102088 0.112219 -0.045445 -0.047070 
https://t.co/iqq0fckzbu 0.000530 -0.008280 0.005167 -0.008749 0.007233 -0.010137 0.012652 -0.002253 -0.013044 0.021150 0.013740 0.011796 -0.003812 0.004874 -0.004536 0.017048 0.021257 0.005368 0.027647 0.018148 0.009058 -0.002745 0.020231 -0.029069 0.007333 -0.013007 -0.004982 -0.001211 -0.006552 0.010415 0.003928 0.004369 -0.017591 0.009574 -0.004514 0.005757 -0.006878 -0.010740 0.009975 -0.010025 0.001776 -0.004755 0.002349 0.005043 0.014977 0.013875 -0.010266 -0.013444 0.004997 0.000392 -0.005619 -0.016482 -0.005984 -0.006364 -0.011011 -0.014835 0.014328 -0.005604 0.015301 -0.020132 -0.000722 -0.001198 0.005189 -0.005107 0.001349 0.002940 0.012803 0.001656 0.023146 -0.009071 0.000964 -0.002305 0.007976 -0.012308 -0.017000 0.001009 -0.001510 0.018600 -0.012679 -0.005521 0.004952 -0.000774 -0.011593 -0.004848 0.016705 0.008689 -0.006306 -0.003864 0.017874 -0.016206 -0.001972 -0.000318 0.002313 0.001277 0.000815 -0.003214 -0.019846 0.018258 -0.010275 -0.001548 
spend -0.080170 -0.103531 0.051574 -0.135841 0.166403 -0.227160 0.138197 -0.035423 -0.169725 0.408804 0.227439 0.217962 -0.036523 0.099250 -0.058134 0.373290 0.340576 0.150084 0.408382 0.384964 0.071698 0.024787 0.274685 -0.504136 0.183969 -0.215043 -0.125225 -0.074627 -0.055779 0.212176 0.026961 0.095261 -0.280388 0.154159 -0.061680 0.131666 -0.110092 -0.133191 0.144980 -0.175055 0.049802 -0.053333 -0.004429 0.127178 0.213774 0.238184 -0.096932 -0.150295 0.068092 0.006180 -0.030376 -0.222136 -0.042140 -0.171447 -0.083401 -0.202579 0.161496 -0.050668 0.233755 -0.372882 -0.066638 -0.097179 0.070532 -0.014833 -0.009531 0.040121 0.248582 0.026436 0.361439 -0.119447 0.106083 -0.074321 0.088634 -0.169069 -0.285594 0.064842 -0.017993 0.285790 -0.192152 -0.092979 0.089960 0.020295 -0.101799 -0.065218 0.276581 0.169690 -0.138512 0.007209 0.258973 -0.175084 0.001033 -0.046995 0.049094 0.039452 0.086534 0.005408 -0.272762 0.293409 -0.117621 -0.106941 
wants -0.011389 -0.008380 -0.001861 -0.013991 0.013161 -0.024263 0.016630 0.002279 -0.010556 0.034387 0.015203 0.021429 -0.001592 0.013612 -0.002603 0.036179 0.025777 0.017413 0.039158 0.034007 0.007866 0.001935 0.026925 -0.045983 0.016877 -0.019476 -0.013155 -0.000928 -0.006935 0.015677 -0.000267 0.010062 -0.020882 0.012219 -0.003590 0.015774 -0.013019 -0.013548 0.016983 -0.009649 -0.001335 -0.003794 0.002592 0.015238 0.015915 0.018823 -0.011806 -0.015486 0.005737 0.004603 -0.006660 -0.021062 -0.004243 -0.018783 -0.012815 -0.013325 0.011461 -0.006190 0.022450 -0.036692 -0.010047 -0.011431 0.010075 0.001922 -0.000474 -0.002535 0.022150 0.005412 0.026874 -0.013470 0.009491 -0.009900 0.005054 -0.013233 -0.029940 0.010683 0.004709 0.028645 -0.018959 -0.010624 0.009729 -0.000997 -0.015173 -0.008284 0.024123 0.014387 -0.016659 0.003255 0.016553 -0.020055 0.004513 -0.005840 0.007547 -0.001848 0.003481 -0.000482 -0.025790 0.026603 -0.010850 -0.005242 
nobody -0.008662 -0.012643 0.005014 -0.009455 0.015330 -0.022041 0.015689 -0.003129 -0.009845 0.026672 0.020341 0.014893 -0.006034 0.012334 -0.005025 0.030990 0.026672 0.014246 0.033000 0.035876 0.011295 0.003367 0.020591 -0.045441 0.017474 -0.014671 -0.015724 -0.009564 -0.008260 0.021044 0.003672 0.006202 -0.023646 0.014148 -0.005085 0.011505 -0.014190 -0.008079 0.008832 -0.015697 0.004702 -0.008933 0.003513 0.014280 0.018027 0.023576 -0.007879 -0.015912 0.007294 0.004572 -0.003041 -0.017694 0.000712 -0.017744 -0.008307 -0.020551 0.013874 -0.007688 0.017432 -0.033040 -0.008752 -0.013715 0.004306 -0.004797 -0.000563 -0.002811 0.021475 0.004829 0.028307 -0.014961 0.005113 -0.007080 0.007513 -0.007777 -0.022560 0.005517 -0.005077 0.028806 -0.019152 -0.010004 0.009878 0.001133 -0.013935 -0.008103 0.027070 0.011972 -0.013939 -0.000836 0.019960 -0.015671 0.000042 -0.003304 0.000498 0.006831 0.008776 -0.000620 -0.020107 0.021535 -0.007772 -0.012305 
